digraph Tree {
node [shape=box] ;
0 [label="X[0] <= 98.5\ngini = 0.5265\nsamples = 28863\nvalue = [15995, 506, 11746, 616]"] ;
1 [label="X[0] <= 85.5\ngini = 0.0493\nsamples = 15243\nvalue = [14858, 13, 17, 355]"] ;
0 -> 1 [labeldistance=2.5, labelangle=45, headlabel="True"] ;
2 [label="X[0] <= 78.5\ngini = 0.0265\nsamples = 14842\nvalue = [14643, 13, 14, 172]"] ;
1 -> 2 ;
3 [label="X[0] <= 68.5\ngini = 0.0198\nsamples = 14306\nvalue = [14163, 13, 13, 117]"] ;
2 -> 3 ;
4 [label="X[0] <= 3.5\ngini = 0.0136\nsamples = 12394\nvalue = [12309, 13, 7, 65]"] ;
3 -> 4 ;
5 [label="X[0] <= 2.0\ngini = 0.4444\nsamples = 6\nvalue = [4, 2, 0, 0]"] ;
4 -> 5 ;
6 [label="gini = 0.0\nsamples = 1\nvalue = [1, 0, 0, 0]"] ;
5 -> 6 ;
7 [label="gini = 0.48\nsamples = 5\nvalue = [3, 2, 0, 0]"] ;
5 -> 7 ;
8 [label="X[0] <= 36.5\ngini = 0.0133\nsamples = 12388\nvalue = [12305, 11, 7, 65]"] ;
4 -> 8 ;
9 [label="X[0] <= 6.5\ngini = 0.0057\nsamples = 6604\nvalue = [6585, 8, 0, 11]"] ;
8 -> 9 ;
10 [label="X[0] <= 5.5\ngini = 0.185\nsamples = 20\nvalue = [18, 1, 0, 1]"] ;
9 -> 10 ;
11 [label="gini = 0.0\nsamples = 9\nvalue = [9, 0, 0, 0]"] ;
10 -> 11 ;
12 [label="gini = 0.314\nsamples = 11\nvalue = [9, 1, 0, 1]"] ;
10 -> 12 ;
13 [label="X[0] <= 8.5\ngini = 0.0052\nsamples = 6584\nvalue = [6567, 7, 0, 10]"] ;
9 -> 13 ;
14 [label="X[0] <= 7.5\ngini = 0.0592\nsamples = 66\nvalue = [64, 1, 0, 1]"] ;
13 -> 14 ;
15 [label="gini = 0.074\nsamples = 26\nvalue = [25, 1, 0, 0]"] ;
14 -> 15 ;
16 [label="gini = 0.0487\nsamples = 40\nvalue = [39, 0, 0, 1]"] ;
14 -> 16 ;
17 [label="X[0] <= 26.5\ngini = 0.0046\nsamples = 6518\nvalue = [6503, 6, 0, 9]"] ;
13 -> 17 ;
18 [label="X[0] <= 10.5\ngini = 0.0026\nsamples = 4670\nvalue = [4664, 4, 0, 2]"] ;
17 -> 18 ;
19 [label="X[0] <= 9.5\ngini = 0.0123\nsamples = 162\nvalue = [161, 1, 0, 0]"] ;
18 -> 19 ;
20 [label="gini = 0.0\nsamples = 70\nvalue = [70, 0, 0, 0]"] ;
19 -> 20 ;
21 [label="gini = 0.0215\nsamples = 92\nvalue = [91, 1, 0, 0]"] ;
19 -> 21 ;
22 [label="X[0] <= 13.5\ngini = 0.0022\nsamples = 4508\nvalue = [4503, 3, 0, 2]"] ;
18 -> 22 ;
23 [label="X[0] <= 12.5\ngini = 0.0047\nsamples = 425\nvalue = [424, 1, 0, 0]"] ;
22 -> 23 ;
24 [label="gini = 0.0\nsamples = 248\nvalue = [248, 0, 0, 0]"] ;
23 -> 24 ;
25 [label="gini = 0.0112\nsamples = 177\nvalue = [176, 1, 0, 0]"] ;
23 -> 25 ;
26 [label="X[0] <= 20.5\ngini = 0.002\nsamples = 4083\nvalue = [4079, 2, 0, 2]"] ;
22 -> 26 ;
27 [label="X[0] <= 17.5\ngini = 0.001\nsamples = 1904\nvalue = [1903, 0, 0, 1]"] ;
26 -> 27 ;
28 [label="X[0] <= 16.5\ngini = 0.0022\nsamples = 899\nvalue = [898, 0, 0, 1]"] ;
27 -> 28 ;
29 [label="gini = 0.0\nsamples = 652\nvalue = [652, 0, 0, 0]"] ;
28 -> 29 ;
30 [label="gini = 0.0081\nsamples = 247\nvalue = [246, 0, 0, 1]"] ;
28 -> 30 ;
31 [label="gini = 0.0\nsamples = 1005\nvalue = [1005, 0, 0, 0]"] ;
27 -> 31 ;
32 [label="X[0] <= 22.5\ngini = 0.0028\nsamples = 2179\nvalue = [2176, 2, 0, 1]"] ;
26 -> 32 ;
33 [label="X[0] <= 21.5\ngini = 0.0054\nsamples = 737\nvalue = [735, 2, 0, 0]"] ;
32 -> 33 ;
34 [label="gini = 0.0058\nsamples = 343\nvalue = [342, 1, 0, 0]"] ;
33 -> 34 ;
35 [label="gini = 0.0051\nsamples = 394\nvalue = [393, 1, 0, 0]"] ;
33 -> 35 ;
36 [label="X[0] <= 24.5\ngini = 0.0014\nsamples = 1442\nvalue = [1441, 0, 0, 1]"] ;
32 -> 36 ;
37 [label="gini = 0.0\nsamples = 738\nvalue = [738, 0, 0, 0]"] ;
36 -> 37 ;
38 [label="X[0] <= 25.5\ngini = 0.0028\nsamples = 704\nvalue = [703, 0, 0, 1]"] ;
36 -> 38 ;
39 [label="gini = 0.0054\nsamples = 368\nvalue = [367, 0, 0, 1]"] ;
38 -> 39 ;
40 [label="gini = 0.0\nsamples = 336\nvalue = [336, 0, 0, 0]"] ;
38 -> 40 ;
41 [label="X[0] <= 27.5\ngini = 0.0097\nsamples = 1848\nvalue = [1839, 2, 0, 7]"] ;
17 -> 41 ;
42 [label="gini = 0.0219\nsamples = 271\nvalue = [268, 1, 0, 2]"] ;
41 -> 42 ;
43 [label="X[0] <= 30.5\ngini = 0.0076\nsamples = 1577\nvalue = [1571, 1, 0, 5]"] ;
41 -> 43 ;
44 [label="X[0] <= 28.5\ngini = 0.0029\nsamples = 690\nvalue = [689, 0, 0, 1]"] ;
43 -> 44 ;
45 [label="gini = 0.0068\nsamples = 291\nvalue = [290, 0, 0, 1]"] ;
44 -> 45 ;
46 [label="gini = 0.0\nsamples = 399\nvalue = [399, 0, 0, 0]"] ;
44 -> 46 ;
47 [label="X[0] <= 31.5\ngini = 0.0112\nsamples = 887\nvalue = [882, 1, 0, 4]"] ;
43 -> 47 ;
48 [label="gini = 0.0234\nsamples = 169\nvalue = [167, 0, 0, 2]"] ;
47 -> 48 ;
49 [label="X[0] <= 32.5\ngini = 0.0083\nsamples = 718\nvalue = [715, 1, 0, 2]"] ;
47 -> 49 ;
50 [label="gini = 0.0\nsamples = 153\nvalue = [153, 0, 0, 0]"] ;
49 -> 50 ;
51 [label="X[0] <= 33.5\ngini = 0.0106\nsamples = 565\nvalue = [562, 1, 0, 2]"] ;
49 -> 51 ;
52 [label="gini = 0.0237\nsamples = 167\nvalue = [165, 1, 0, 1]"] ;
51 -> 52 ;
53 [label="X[0] <= 35.5\ngini = 0.005\nsamples = 398\nvalue = [397, 0, 0, 1]"] ;
51 -> 53 ;
54 [label="X[0] <= 34.5\ngini = 0.0074\nsamples = 269\nvalue = [268, 0, 0, 1]"] ;
53 -> 54 ;
55 [label="gini = 0.0\nsamples = 126\nvalue = [126, 0, 0, 0]"] ;
54 -> 55 ;
56 [label="gini = 0.0139\nsamples = 143\nvalue = [142, 0, 0, 1]"] ;
54 -> 56 ;
57 [label="gini = 0.0\nsamples = 129\nvalue = [129, 0, 0, 0]"] ;
53 -> 57 ;
58 [label="X[0] <= 48.5\ngini = 0.0219\nsamples = 5784\nvalue = [5720, 3, 7, 54]"] ;
8 -> 58 ;
59 [label="X[0] <= 38.5\ngini = 0.0315\nsamples = 1877\nvalue = [1847, 3, 1, 26]"] ;
58 -> 59 ;
60 [label="X[0] <= 37.5\ngini = 0.0525\nsamples = 224\nvalue = [218, 3, 0, 3]"] ;
59 -> 60 ;
61 [label="gini = 0.0333\nsamples = 118\nvalue = [116, 0, 0, 2]"] ;
60 -> 61 ;
62 [label="gini = 0.0732\nsamples = 106\nvalue = [102, 3, 0, 1]"] ;
60 -> 62 ;
63 [label="X[0] <= 39.5\ngini = 0.0286\nsamples = 1653\nvalue = [1629, 0, 1, 23]"] ;
59 -> 63 ;
64 [label="gini = 0.0\nsamples = 113\nvalue = [113, 0, 0, 0]"] ;
63 -> 64 ;
65 [label="X[0] <= 42.5\ngini = 0.0307\nsamples = 1540\nvalue = [1516, 0, 1, 23]"] ;
63 -> 65 ;
66 [label="X[0] <= 40.5\ngini = 0.0379\nsamples = 362\nvalue = [355, 0, 0, 7]"] ;
65 -> 66 ;
67 [label="gini = 0.0364\nsamples = 108\nvalue = [106, 0, 0, 2]"] ;
66 -> 67 ;
68 [label="X[0] <= 41.5\ngini = 0.0386\nsamples = 254\nvalue = [249, 0, 0, 5]"] ;
66 -> 68 ;
69 [label="gini = 0.0392\nsamples = 100\nvalue = [98, 0, 0, 2]"] ;
68 -> 69 ;
70 [label="gini = 0.0382\nsamples = 154\nvalue = [151, 0, 0, 3]"] ;
68 -> 70 ;
71 [label="X[0] <= 44.5\ngini = 0.0285\nsamples = 1178\nvalue = [1161, 0, 1, 16]"] ;
65 -> 71 ;
72 [label="X[0] <= 43.5\ngini = 0.0151\nsamples = 395\nvalue = [392, 0, 0, 3]"] ;
71 -> 72 ;
73 [label="gini = 0.0103\nsamples = 194\nvalue = [193, 0, 0, 1]"] ;
72 -> 73 ;
74 [label="gini = 0.0197\nsamples = 201\nvalue = [199, 0, 0, 2]"] ;
72 -> 74 ;
75 [label="X[0] <= 45.5\ngini = 0.0352\nsamples = 783\nvalue = [769, 0, 1, 13]"] ;
71 -> 75 ;
76 [label="gini = 0.0585\nsamples = 199\nvalue = [193, 0, 0, 6]"] ;
75 -> 76 ;
77 [label="X[0] <= 46.5\ngini = 0.0271\nsamples = 584\nvalue = [576, 0, 1, 7]"] ;
75 -> 77 ;
78 [label="gini = 0.028\nsamples = 212\nvalue = [209, 0, 1, 2]"] ;
77 -> 78 ;
79 [label="X[0] <= 47.5\ngini = 0.0265\nsamples = 372\nvalue = [367, 0, 0, 5]"] ;
77 -> 79 ;
80 [label="gini = 0.0268\nsamples = 221\nvalue = [218, 0, 0, 3]"] ;
79 -> 80 ;
81 [label="gini = 0.0261\nsamples = 151\nvalue = [149, 0, 0, 2]"] ;
79 -> 81 ;
82 [label="X[0] <= 61.5\ngini = 0.0173\nsamples = 3907\nvalue = [3873, 0, 6, 28]"] ;
58 -> 82 ;
83 [label="X[0] <= 53.5\ngini = 0.0109\nsamples = 2201\nvalue = [2189, 0, 4, 8]"] ;
82 -> 83 ;
84 [label="X[0] <= 51.5\ngini = 0.0025\nsamples = 809\nvalue = [808, 0, 0, 1]"] ;
83 -> 84 ;
85 [label="X[0] <= 50.5\ngini = 0.0041\nsamples = 482\nvalue = [481, 0, 0, 1]"] ;
84 -> 85 ;
86 [label="gini = 0.0\nsamples = 326\nvalue = [326, 0, 0, 0]"] ;
85 -> 86 ;
87 [label="gini = 0.0127\nsamples = 156\nvalue = [155, 0, 0, 1]"] ;
85 -> 87 ;
88 [label="gini = 0.0\nsamples = 327\nvalue = [327, 0, 0, 0]"] ;
84 -> 88 ;
89 [label="X[0] <= 56.5\ngini = 0.0157\nsamples = 1392\nvalue = [1381, 0, 4, 7]"] ;
83 -> 89 ;
90 [label="X[0] <= 55.5\ngini = 0.0234\nsamples = 509\nvalue = [503, 0, 4, 2]"] ;
89 -> 90 ;
91 [label="X[0] <= 54.5\ngini = 0.0113\nsamples = 352\nvalue = [350, 0, 1, 1]"] ;
90 -> 91 ;
92 [label="gini = 0.0112\nsamples = 177\nvalue = [176, 0, 0, 1]"] ;
91 -> 92 ;
93 [label="gini = 0.0114\nsamples = 175\nvalue = [174, 0, 1, 0]"] ;
91 -> 93 ;
94 [label="gini = 0.0499\nsamples = 157\nvalue = [153, 0, 3, 1]"] ;
90 -> 94 ;
95 [label="X[0] <= 60.5\ngini = 0.0113\nsamples = 883\nvalue = [878, 0, 0, 5]"] ;
89 -> 95 ;
96 [label="X[0] <= 58.5\ngini = 0.0138\nsamples = 722\nvalue = [717, 0, 0, 5]"] ;
95 -> 96 ;
97 [label="X[0] <= 57.5\ngini = 0.0165\nsamples = 361\nvalue = [358, 0, 0, 3]"] ;
96 -> 97 ;
98 [label="gini = 0.0124\nsamples = 160\nvalue = [159, 0, 0, 1]"] ;
97 -> 98 ;
99 [label="gini = 0.0197\nsamples = 201\nvalue = [199, 0, 0, 2]"] ;
97 -> 99 ;
100 [label="X[0] <= 59.5\ngini = 0.011\nsamples = 361\nvalue = [359, 0, 0, 2]"] ;
96 -> 100 ;
101 [label="gini = 0.0118\nsamples = 169\nvalue = [168, 0, 0, 1]"] ;
100 -> 101 ;
102 [label="gini = 0.0104\nsamples = 192\nvalue = [191, 0, 0, 1]"] ;
100 -> 102 ;
103 [label="gini = 0.0\nsamples = 161\nvalue = [161, 0, 0, 0]"] ;
95 -> 103 ;
104 [label="X[0] <= 64.5\ngini = 0.0255\nsamples = 1706\nvalue = [1684, 0, 2, 20]"] ;
82 -> 104 ;
105 [label="X[0] <= 62.5\ngini = 0.0347\nsamples = 679\nvalue = [667, 0, 0, 12]"] ;
104 -> 105 ;
106 [label="gini = 0.0461\nsamples = 212\nvalue = [207, 0, 0, 5]"] ;
105 -> 106 ;
107 [label="X[0] <= 63.5\ngini = 0.0295\nsamples = 467\nvalue = [460, 0, 0, 7]"] ;
105 -> 107 ;
108 [label="gini = 0.0195\nsamples = 203\nvalue = [201, 0, 0, 2]"] ;
107 -> 108 ;
109 [label="gini = 0.0372\nsamples = 264\nvalue = [259, 0, 0, 5]"] ;
107 -> 109 ;
110 [label="X[0] <= 65.5\ngini = 0.0193\nsamples = 1027\nvalue = [1017, 0, 2, 8]"] ;
104 -> 110 ;
111 [label="gini = 0.0085\nsamples = 235\nvalue = [234, 0, 1, 0]"] ;
110 -> 111 ;
112 [label="X[0] <= 67.5\ngini = 0.0225\nsamples = 792\nvalue = [783, 0, 1, 8]"] ;
110 -> 112 ;
113 [label="X[0] <= 66.5\ngini = 0.0285\nsamples = 555\nvalue = [547, 0, 1, 7]"] ;
112 -> 113 ;
114 [label="gini = 0.0287\nsamples = 275\nvalue = [271, 0, 0, 4]"] ;
113 -> 114 ;
115 [label="gini = 0.0282\nsamples = 280\nvalue = [276, 0, 1, 3]"] ;
113 -> 115 ;
116 [label="gini = 0.0084\nsamples = 237\nvalue = [236, 0, 0, 1]"] ;
112 -> 116 ;
117 [label="X[0] <= 75.5\ngini = 0.059\nsamples = 1912\nvalue = [1854, 0, 6, 52]"] ;
3 -> 117 ;
118 [label="X[0] <= 73.5\ngini = 0.0516\nsamples = 1477\nvalue = [1438, 0, 6, 33]"] ;
117 -> 118 ;
119 [label="X[0] <= 71.5\ngini = 0.047\nsamples = 1124\nvalue = [1097, 0, 4, 23]"] ;
118 -> 119 ;
120 [label="X[0] <= 70.5\ngini = 0.0469\nsamples = 711\nvalue = [694, 0, 4, 13]"] ;
119 -> 120 ;
121 [label="X[0] <= 69.5\ngini = 0.0484\nsamples = 485\nvalue = [473, 0, 2, 10]"] ;
120 -> 121 ;
122 [label="gini = 0.0541\nsamples = 217\nvalue = [211, 0, 2, 4]"] ;
121 -> 122 ;
123 [label="gini = 0.0438\nsamples = 268\nvalue = [262, 0, 0, 6]"] ;
121 -> 123 ;
124 [label="gini = 0.0435\nsamples = 226\nvalue = [221, 0, 2, 3]"] ;
120 -> 124 ;
125 [label="X[0] <= 72.5\ngini = 0.0473\nsamples = 413\nvalue = [403, 0, 0, 10]"] ;
119 -> 125 ;
126 [label="gini = 0.0467\nsamples = 209\nvalue = [204, 0, 0, 5]"] ;
125 -> 126 ;
127 [label="gini = 0.0478\nsamples = 204\nvalue = [199, 0, 0, 5]"] ;
125 -> 127 ;
128 [label="X[0] <= 74.5\ngini = 0.066\nsamples = 353\nvalue = [341, 0, 2, 10]"] ;
118 -> 128 ;
129 [label="gini = 0.0665\nsamples = 175\nvalue = [169, 0, 1, 5]"] ;
128 -> 129 ;
130 [label="gini = 0.0655\nsamples = 178\nvalue = [172, 0, 1, 5]"] ;
128 -> 130 ;
131 [label="X[0] <= 77.5\ngini = 0.0835\nsamples = 435\nvalue = [416, 0, 0, 19]"] ;
117 -> 131 ;
132 [label="X[0] <= 76.5\ngini = 0.109\nsamples = 294\nvalue = [277, 0, 0, 17]"] ;
131 -> 132 ;
133 [label="gini = 0.1172\nsamples = 160\nvalue = [150, 0, 0, 10]"] ;
132 -> 133 ;
134 [label="gini = 0.099\nsamples = 134\nvalue = [127, 0, 0, 7]"] ;
132 -> 134 ;
135 [label="gini = 0.028\nsamples = 141\nvalue = [139, 0, 0, 2]"] ;
131 -> 135 ;
136 [label="X[0] <= 81.5\ngini = 0.1875\nsamples = 536\nvalue = [480, 0, 1, 55]"] ;
2 -> 136 ;
137 [label="X[0] <= 79.5\ngini = 0.1311\nsamples = 313\nvalue = [291, 0, 1, 21]"] ;
136 -> 137 ;
138 [label="gini = 0.1541\nsamples = 108\nvalue = [99, 0, 1, 8]"] ;
137 -> 138 ;
139 [label="X[0] <= 80.5\ngini = 0.1188\nsamples = 205\nvalue = [192, 0, 0, 13]"] ;
137 -> 139 ;
140 [label="gini = 0.1223\nsamples = 107\nvalue = [100, 0, 0, 7]"] ;
139 -> 140 ;
141 [label="gini = 0.115\nsamples = 98\nvalue = [92, 0, 0, 6]"] ;
139 -> 141 ;
142 [label="X[0] <= 83.5\ngini = 0.2584\nsamples = 223\nvalue = [189, 0, 0, 34]"] ;
136 -> 142 ;
143 [label="X[0] <= 82.5\ngini = 0.3348\nsamples = 127\nvalue = [100, 0, 0, 27]"] ;
142 -> 143 ;
144 [label="gini = 0.2744\nsamples = 67\nvalue = [56, 0, 0, 11]"] ;
143 -> 144 ;
145 [label="gini = 0.3911\nsamples = 60\nvalue = [44, 0, 0, 16]"] ;
143 -> 145 ;
146 [label="X[0] <= 84.5\ngini = 0.1352\nsamples = 96\nvalue = [89, 0, 0, 7]"] ;
142 -> 146 ;
147 [label="gini = 0.1298\nsamples = 43\nvalue = [40, 0, 0, 3]"] ;
146 -> 147 ;
148 [label="gini = 0.1396\nsamples = 53\nvalue = [49, 0, 0, 4]"] ;
146 -> 148 ;
149 [label="X[0] <= 96.5\ngini = 0.5042\nsamples = 401\nvalue = [215, 0, 3, 183]"] ;
1 -> 149 ;
150 [label="X[0] <= 89.5\ngini = 0.5002\nsamples = 350\nvalue = [196, 0, 3, 151]"] ;
149 -> 150 ;
151 [label="X[0] <= 86.5\ngini = 0.4817\nsamples = 163\nvalue = [99, 0, 1, 63]"] ;
150 -> 151 ;
152 [label="gini = 0.4973\nsamples = 54\nvalue = [32, 0, 1, 21]"] ;
151 -> 152 ;
153 [label="X[0] <= 88.5\ngini = 0.4737\nsamples = 109\nvalue = [67, 0, 0, 42]"] ;
151 -> 153 ;
154 [label="X[0] <= 87.5\ngini = 0.4756\nsamples = 77\nvalue = [47, 0, 0, 30]"] ;
153 -> 154 ;
155 [label="gini = 0.4775\nsamples = 33\nvalue = [20, 0, 0, 13]"] ;
154 -> 155 ;
156 [label="gini = 0.4742\nsamples = 44\nvalue = [27, 0, 0, 17]"] ;
154 -> 156 ;
157 [label="gini = 0.4688\nsamples = 32\nvalue = [20, 0, 0, 12]"] ;
153 -> 157 ;
158 [label="X[0] <= 93.5\ngini = 0.5094\nsamples = 187\nvalue = [97, 0, 2, 88]"] ;
150 -> 158 ;
159 [label="X[0] <= 91.5\ngini = 0.5079\nsamples = 120\nvalue = [58, 0, 1, 61]"] ;
158 -> 159 ;
160 [label="X[0] <= 90.5\ngini = 0.4981\nsamples = 49\nvalue = [26, 0, 0, 23]"] ;
159 -> 160 ;
161 [label="gini = 0.4974\nsamples = 28\nvalue = [13, 0, 0, 15]"] ;
160 -> 161 ;
162 [label="gini = 0.4717\nsamples = 21\nvalue = [13, 0, 0, 8]"] ;
160 -> 162 ;
163 [label="X[0] <= 92.5\ngini = 0.5102\nsamples = 71\nvalue = [32, 0, 1, 38]"] ;
159 -> 163 ;
164 [label="gini = 0.5242\nsamples = 34\nvalue = [15, 0, 1, 18]"] ;
163 -> 164 ;
165 [label="gini = 0.4967\nsamples = 37\nvalue = [17, 0, 0, 20]"] ;
163 -> 165 ;
166 [label="X[0] <= 94.5\ngini = 0.4986\nsamples = 67\nvalue = [39, 0, 1, 27]"] ;
158 -> 166 ;
167 [label="gini = 0.4281\nsamples = 29\nvalue = [20, 0, 0, 9]"] ;
166 -> 167 ;
168 [label="X[0] <= 95.5\ngini = 0.5249\nsamples = 38\nvalue = [19, 0, 1, 18]"] ;
166 -> 168 ;
169 [label="gini = 0.4989\nsamples = 21\nvalue = [11, 0, 0, 10]"] ;
168 -> 169 ;
170 [label="gini = 0.5536\nsamples = 17\nvalue = [8, 0, 1, 8]"] ;
168 -> 170 ;
171 [label="X[0] <= 97.5\ngini = 0.4675\nsamples = 51\nvalue = [19, 0, 0, 32]"] ;
149 -> 171 ;
172 [label="gini = 0.48\nsamples = 25\nvalue = [10, 0, 0, 15]"] ;
171 -> 172 ;
173 [label="gini = 0.4527\nsamples = 26\nvalue = [9, 0, 0, 17]"] ;
171 -> 173 ;
174 [label="X[0] <= 260.5\ngini = 0.2498\nsamples = 13620\nvalue = [1137, 493, 11729, 261]"] ;
0 -> 174 [labeldistance=2.5, labelangle=-45, headlabel="False"] ;
175 [label="X[0] <= 148.5\ngini = 0.0742\nsamples = 12043\nvalue = [77, 123, 11584, 259]"] ;
174 -> 175 ;
176 [label="X[0] <= 105.5\ngini = 0.5601\nsamples = 474\nvalue = [30, 3, 202, 239]"] ;
175 -> 176 ;
177 [label="X[0] <= 99.5\ngini = 0.5351\nsamples = 143\nvalue = [19, 0, 35, 89]"] ;
176 -> 177 ;
178 [label="gini = 0.5248\nsamples = 22\nvalue = [5, 0, 3, 14]"] ;
177 -> 178 ;
179 [label="X[0] <= 103.5\ngini = 0.5325\nsamples = 121\nvalue = [14, 0, 32, 75]"] ;
177 -> 179 ;
180 [label="X[0] <= 102.5\ngini = 0.5004\nsamples = 89\nvalue = [8, 0, 23, 58]"] ;
179 -> 180 ;
181 [label="X[0] <= 101.5\ngini = 0.5108\nsamples = 65\nvalue = [5, 0, 19, 41]"] ;
180 -> 181 ;
182 [label="X[0] <= 100.5\ngini = 0.4824\nsamples = 43\nvalue = [4, 0, 10, 29]"] ;
181 -> 182 ;
183 [label="gini = 0.5104\nsamples = 23\nvalue = [3, 0, 5, 15]"] ;
182 -> 183 ;
184 [label="gini = 0.445\nsamples = 20\nvalue = [1, 0, 5, 14]"] ;
182 -> 184 ;
185 [label="gini = 0.5331\nsamples = 22\nvalue = [1, 0, 9, 12]"] ;
181 -> 185 ;
186 [label="gini = 0.4549\nsamples = 24\nvalue = [3, 0, 4, 17]"] ;
180 -> 186 ;
187 [label="X[0] <= 104.5\ngini = 0.6035\nsamples = 32\nvalue = [6, 0, 9, 17]"] ;
179 -> 187 ;
188 [label="gini = 0.6044\nsamples = 15\nvalue = [3, 0, 4, 8]"] ;
187 -> 188 ;
189 [label="gini = 0.6021\nsamples = 17\nvalue = [3, 0, 5, 9]"] ;
187 -> 189 ;
190 [label="X[0] <= 136.5\ngini = 0.5389\nsamples = 331\nvalue = [11, 3, 167, 150]"] ;
176 -> 190 ;
191 [label="X[0] <= 131.5\ngini = 0.5366\nsamples = 284\nvalue = [10, 1, 139, 134]"] ;
190 -> 191 ;
192 [label="X[0] <= 119.5\ngini = 0.5372\nsamples = 235\nvalue = [10, 0, 121, 104]"] ;
191 -> 192 ;
193 [label="X[0] <= 108.5\ngini = 0.5425\nsamples = 153\nvalue = [7, 0, 74, 72]"] ;
192 -> 193 ;
194 [label="X[0] <= 107.5\ngini = 0.5733\nsamples = 43\nvalue = [4, 0, 22, 17]"] ;
193 -> 194 ;
195 [label="X[0] <= 106.5\ngini = 0.5996\nsamples = 32\nvalue = [4, 0, 13, 15]"] ;
194 -> 195 ;
196 [label="gini = 0.5805\nsamples = 21\nvalue = [2, 0, 9, 10]"] ;
195 -> 196 ;
197 [label="gini = 0.6281\nsamples = 11\nvalue = [2, 0, 4, 5]"] ;
195 -> 197 ;
198 [label="gini = 0.2975\nsamples = 11\nvalue = [0, 0, 9, 2]"] ;
194 -> 198 ;
199 [label="X[0] <= 111.5\ngini = 0.5258\nsamples = 110\nvalue = [3, 0, 52, 55]"] ;
193 -> 199 ;
200 [label="X[0] <= 109.5\ngini = 0.535\nsamples = 40\nvalue = [2, 0, 16, 22]"] ;
199 -> 200 ;
201 [label="gini = 0.4898\nsamples = 14\nvalue = [0, 0, 6, 8]"] ;
200 -> 201 ;
202 [label="X[0] <= 110.5\ngini = 0.5562\nsamples = 26\nvalue = [2, 0, 10, 14]"] ;
200 -> 202 ;
203 [label="gini = 0.602\nsamples = 14\nvalue = [2, 0, 5, 7]"] ;
202 -> 203 ;
204 [label="gini = 0.4861\nsamples = 12\nvalue = [0, 0, 5, 7]"] ;
202 -> 204 ;
205 [label="X[0] <= 113.5\ngini = 0.5131\nsamples = 70\nvalue = [1, 0, 36, 33]"] ;
199 -> 205 ;
206 [label="X[0] <= 112.5\ngini = 0.4444\nsamples = 18\nvalue = [0, 0, 12, 6]"] ;
205 -> 206 ;
207 [label="gini = 0.4898\nsamples = 7\nvalue = [0, 0, 4, 3]"] ;
206 -> 207 ;
208 [label="gini = 0.3967\nsamples = 11\nvalue = [0, 0, 8, 3]"] ;
206 -> 208 ;
209 [label="X[0] <= 114.5\ngini = 0.517\nsamples = 52\nvalue = [1, 0, 24, 27]"] ;
205 -> 209 ;
210 [label="gini = 0.2188\nsamples = 8\nvalue = [0, 0, 1, 7]"] ;
209 -> 210 ;
211 [label="X[0] <= 115.5\ngini = 0.5196\nsamples = 44\nvalue = [1, 0, 23, 20]"] ;
209 -> 211 ;
212 [label="gini = 0.375\nsamples = 8\nvalue = [0, 0, 6, 2]"] ;
211 -> 212 ;
213 [label="X[0] <= 116.5\ngini = 0.5262\nsamples = 36\nvalue = [1, 0, 17, 18]"] ;
211 -> 213 ;
214 [label="gini = 0.4444\nsamples = 6\nvalue = [0, 0, 2, 4]"] ;
213 -> 214 ;
215 [label="X[0] <= 118.5\ngini = 0.5311\nsamples = 30\nvalue = [1, 0, 15, 14]"] ;
213 -> 215 ;
216 [label="X[0] <= 117.5\ngini = 0.4986\nsamples = 19\nvalue = [0, 0, 10, 9]"] ;
215 -> 216 ;
217 [label="gini = 0.4938\nsamples = 9\nvalue = [0, 0, 5, 4]"] ;
216 -> 217 ;
218 [label="gini = 0.5\nsamples = 10\nvalue = [0, 0, 5, 5]"] ;
216 -> 218 ;
219 [label="gini = 0.5785\nsamples = 11\nvalue = [1, 0, 5, 5]"] ;
215 -> 219 ;
220 [label="X[0] <= 123.5\ngini = 0.5178\nsamples = 82\nvalue = [3, 0, 47, 32]"] ;
192 -> 220 ;
221 [label="X[0] <= 121.5\ngini = 0.4005\nsamples = 27\nvalue = [1, 0, 20, 6]"] ;
220 -> 221 ;
222 [label="X[0] <= 120.5\ngini = 0.4082\nsamples = 14\nvalue = [0, 0, 10, 4]"] ;
221 -> 222 ;
223 [label="gini = 0.3457\nsamples = 9\nvalue = [0, 0, 7, 2]"] ;
222 -> 223 ;
224 [label="gini = 0.48\nsamples = 5\nvalue = [0, 0, 3, 2]"] ;
222 -> 224 ;
225 [label="X[0] <= 122.5\ngini = 0.3787\nsamples = 13\nvalue = [1, 0, 10, 2]"] ;
221 -> 225 ;
226 [label="gini = 0.2778\nsamples = 6\nvalue = [0, 0, 5, 1]"] ;
225 -> 226 ;
227 [label="gini = 0.449\nsamples = 7\nvalue = [1, 0, 5, 1]"] ;
225 -> 227 ;
228 [label="X[0] <= 130.5\ngini = 0.5342\nsamples = 55\nvalue = [2, 0, 27, 26]"] ;
220 -> 228 ;
229 [label="X[0] <= 127.5\ngini = 0.5\nsamples = 44\nvalue = [0, 0, 22, 22]"] ;
228 -> 229 ;
230 [label="X[0] <= 125.5\ngini = 0.4938\nsamples = 27\nvalue = [0, 0, 15, 12]"] ;
229 -> 230 ;
231 [label="X[0] <= 124.5\ngini = 0.4986\nsamples = 19\nvalue = [0, 0, 10, 9]"] ;
230 -> 231 ;
232 [label="gini = 0.5\nsamples = 6\nvalue = [0, 0, 3, 3]"] ;
231 -> 232 ;
233 [label="gini = 0.497\nsamples = 13\nvalue = [0, 0, 7, 6]"] ;
231 -> 233 ;
234 [label="X[0] <= 126.5\ngini = 0.4688\nsamples = 8\nvalue = [0, 0, 5, 3]"] ;
230 -> 234 ;
235 [label="gini = 0.48\nsamples = 5\nvalue = [0, 0, 3, 2]"] ;
234 -> 235 ;
236 [label="gini = 0.4444\nsamples = 3\nvalue = [0, 0, 2, 1]"] ;
234 -> 236 ;
237 [label="X[0] <= 129.5\ngini = 0.4844\nsamples = 17\nvalue = [0, 0, 7, 10]"] ;
229 -> 237 ;
238 [label="X[0] <= 128.5\ngini = 0.4898\nsamples = 14\nvalue = [0, 0, 6, 8]"] ;
237 -> 238 ;
239 [label="gini = 0.4898\nsamples = 7\nvalue = [0, 0, 3, 4]"] ;
238 -> 239 ;
240 [label="gini = 0.4898\nsamples = 7\nvalue = [0, 0, 3, 4]"] ;
238 -> 240 ;
241 [label="gini = 0.4444\nsamples = 3\nvalue = [0, 0, 1, 2]"] ;
237 -> 241 ;
242 [label="gini = 0.6281\nsamples = 11\nvalue = [2, 0, 5, 4]"] ;
228 -> 242 ;
243 [label="X[0] <= 133.5\ngini = 0.4898\nsamples = 49\nvalue = [0, 1, 18, 30]"] ;
191 -> 243 ;
244 [label="X[0] <= 132.5\ngini = 0.3047\nsamples = 16\nvalue = [0, 0, 3, 13]"] ;
243 -> 244 ;
245 [label="gini = 0.2188\nsamples = 8\nvalue = [0, 0, 1, 7]"] ;
244 -> 245 ;
246 [label="gini = 0.375\nsamples = 8\nvalue = [0, 0, 2, 6]"] ;
244 -> 246 ;
247 [label="X[0] <= 134.5\ngini = 0.5271\nsamples = 33\nvalue = [0, 1, 15, 17]"] ;
243 -> 247 ;
248 [label="gini = 0.5679\nsamples = 9\nvalue = [0, 1, 3, 5]"] ;
247 -> 248 ;
249 [label="X[0] <= 135.5\ngini = 0.5\nsamples = 24\nvalue = [0, 0, 12, 12]"] ;
247 -> 249 ;
250 [label="gini = 0.4898\nsamples = 14\nvalue = [0, 0, 8, 6]"] ;
249 -> 250 ;
251 [label="gini = 0.48\nsamples = 10\nvalue = [0, 0, 4, 6]"] ;
249 -> 251 ;
252 [label="X[0] <= 145.0\ngini = 0.5269\nsamples = 47\nvalue = [1, 2, 28, 16]"] ;
190 -> 252 ;
253 [label="X[0] <= 137.5\ngini = 0.469\nsamples = 37\nvalue = [1, 1, 25, 10]"] ;
252 -> 253 ;
254 [label="gini = 0.2188\nsamples = 8\nvalue = [0, 0, 7, 1]"] ;
253 -> 254 ;
255 [label="X[0] <= 139.5\ngini = 0.5161\nsamples = 29\nvalue = [1, 1, 18, 9]"] ;
253 -> 255 ;
256 [label="X[0] <= 138.5\ngini = 0.497\nsamples = 13\nvalue = [0, 0, 7, 6]"] ;
255 -> 256 ;
257 [label="gini = 0.4938\nsamples = 9\nvalue = [0, 0, 5, 4]"] ;
256 -> 257 ;
258 [label="gini = 0.5\nsamples = 4\nvalue = [0, 0, 2, 2]"] ;
256 -> 258 ;
259 [label="X[0] <= 141.5\ngini = 0.4844\nsamples = 16\nvalue = [1, 1, 11, 3]"] ;
255 -> 259 ;
260 [label="X[0] <= 140.5\ngini = 0.4463\nsamples = 11\nvalue = [1, 1, 8, 1]"] ;
259 -> 260 ;
261 [label="gini = 0.0\nsamples = 1\nvalue = [0, 0, 1, 0]"] ;
260 -> 261 ;
262 [label="gini = 0.48\nsamples = 10\nvalue = [1, 1, 7, 1]"] ;
260 -> 262 ;
263 [label="X[0] <= 143.0\ngini = 0.48\nsamples = 5\nvalue = [0, 0, 3, 2]"] ;
259 -> 263 ;
264 [label="gini = 0.0\nsamples = 1\nvalue = [0, 0, 0, 1]"] ;
263 -> 264 ;
265 [label="gini = 0.375\nsamples = 4\nvalue = [0, 0, 3, 1]"] ;
263 -> 265 ;
266 [label="X[0] <= 147.5\ngini = 0.54\nsamples = 10\nvalue = [0, 1, 3, 6]"] ;
252 -> 266 ;
267 [label="gini = 0.0\nsamples = 5\nvalue = [0, 0, 0, 5]"] ;
266 -> 267 ;
268 [label="gini = 0.56\nsamples = 5\nvalue = [0, 1, 3, 1]"] ;
266 -> 268 ;
269 [label="X[0] <= 251.5\ngini = 0.0319\nsamples = 11569\nvalue = [47, 120, 11382, 20]"] ;
175 -> 269 ;
270 [label="X[0] <= 190.5\ngini = 0.0202\nsamples = 10114\nvalue = [31, 52, 10011, 20]"] ;
269 -> 270 ;
271 [label="X[0] <= 158.5\ngini = 0.2877\nsamples = 107\nvalue = [0, 3, 89, 15]"] ;
270 -> 271 ;
272 [label="X[0] <= 150.5\ngini = 0.4395\nsamples = 32\nvalue = [0, 3, 23, 6]"] ;
271 -> 272 ;
273 [label="X[0] <= 149.5\ngini = 0.2778\nsamples = 6\nvalue = [0, 1, 5, 0]"] ;
272 -> 273 ;
274 [label="gini = 0.375\nsamples = 4\nvalue = [0, 1, 3, 0]"] ;
273 -> 274 ;
275 [label="gini = 0.0\nsamples = 2\nvalue = [0, 0, 2, 0]"] ;
273 -> 275 ;
276 [label="X[0] <= 152.5\ngini = 0.4615\nsamples = 26\nvalue = [0, 2, 18, 6]"] ;
272 -> 276 ;
277 [label="X[0] <= 151.5\ngini = 0.4898\nsamples = 7\nvalue = [0, 0, 4, 3]"] ;
276 -> 277 ;
278 [label="gini = 0.5\nsamples = 2\nvalue = [0, 0, 1, 1]"] ;
277 -> 278 ;
279 [label="gini = 0.48\nsamples = 5\nvalue = [0, 0, 3, 2]"] ;
277 -> 279 ;
280 [label="X[0] <= 153.5\ngini = 0.4211\nsamples = 19\nvalue = [0, 2, 14, 3]"] ;
276 -> 280 ;
281 [label="gini = 0.0\nsamples = 2\nvalue = [0, 0, 2, 0]"] ;
280 -> 281 ;
282 [label="X[0] <= 154.5\ngini = 0.4567\nsamples = 17\nvalue = [0, 2, 12, 3]"] ;
280 -> 282 ;
283 [label="gini = 0.5\nsamples = 2\nvalue = [0, 0, 1, 1]"] ;
282 -> 283 ;
284 [label="X[0] <= 157.5\ngini = 0.4267\nsamples = 15\nvalue = [0, 2, 11, 2]"] ;
282 -> 284 ;
285 [label="X[0] <= 155.5\ngini = 0.4298\nsamples = 11\nvalue = [0, 2, 8, 1]"] ;
284 -> 285 ;
286 [label="gini = 0.0\nsamples = 1\nvalue = [0, 0, 1, 0]"] ;
285 -> 286 ;
287 [label="X[0] <= 156.5\ngini = 0.46\nsamples = 10\nvalue = [0, 2, 7, 1]"] ;
285 -> 287 ;
288 [label="gini = 0.56\nsamples = 5\nvalue = [0, 1, 3, 1]"] ;
287 -> 288 ;
289 [label="gini = 0.32\nsamples = 5\nvalue = [0, 1, 4, 0]"] ;
287 -> 289 ;
290 [label="gini = 0.375\nsamples = 4\nvalue = [0, 0, 3, 1]"] ;
284 -> 290 ;
291 [label="X[0] <= 172.5\ngini = 0.2112\nsamples = 75\nvalue = [0, 0, 66, 9]"] ;
271 -> 291 ;
292 [label="X[0] <= 163.5\ngini = 0.0624\nsamples = 31\nvalue = [0, 0, 30, 1]"] ;
291 -> 292 ;
293 [label="X[0] <= 162.5\ngini = 0.1327\nsamples = 14\nvalue = [0, 0, 13, 1]"] ;
292 -> 293 ;
294 [label="gini = 0.0\nsamples = 11\nvalue = [0, 0, 11, 0]"] ;
293 -> 294 ;
295 [label="gini = 0.4444\nsamples = 3\nvalue = [0, 0, 2, 1]"] ;
293 -> 295 ;
296 [label="gini = 0.0\nsamples = 17\nvalue = [0, 0, 17, 0]"] ;
292 -> 296 ;
297 [label="X[0] <= 174.5\ngini = 0.2975\nsamples = 44\nvalue = [0, 0, 36, 8]"] ;
291 -> 297 ;
298 [label="X[0] <= 173.5\ngini = 0.5\nsamples = 6\nvalue = [0, 0, 3, 3]"] ;
297 -> 298 ;
299 [label="gini = 0.4444\nsamples = 3\nvalue = [0, 0, 2, 1]"] ;
298 -> 299 ;
300 [label="gini = 0.4444\nsamples = 3\nvalue = [0, 0, 1, 2]"] ;
298 -> 300 ;
301 [label="X[0] <= 180.5\ngini = 0.2285\nsamples = 38\nvalue = [0, 0, 33, 5]"] ;
297 -> 301 ;
302 [label="gini = 0.0\nsamples = 6\nvalue = [0, 0, 6, 0]"] ;
301 -> 302 ;
303 [label="X[0] <= 186.5\ngini = 0.2637\nsamples = 32\nvalue = [0, 0, 27, 5]"] ;
301 -> 303 ;
304 [label="X[0] <= 184.5\ngini = 0.4444\nsamples = 9\nvalue = [0, 0, 6, 3]"] ;
303 -> 304 ;
305 [label="X[0] <= 182.5\ngini = 0.4082\nsamples = 7\nvalue = [0, 0, 5, 2]"] ;
304 -> 305 ;
306 [label="X[0] <= 181.5\ngini = 0.48\nsamples = 5\nvalue = [0, 0, 3, 2]"] ;
305 -> 306 ;
307 [label="gini = 0.4444\nsamples = 3\nvalue = [0, 0, 2, 1]"] ;
306 -> 307 ;
308 [label="gini = 0.5\nsamples = 2\nvalue = [0, 0, 1, 1]"] ;
306 -> 308 ;
309 [label="gini = 0.0\nsamples = 2\nvalue = [0, 0, 2, 0]"] ;
305 -> 309 ;
310 [label="gini = 0.5\nsamples = 2\nvalue = [0, 0, 1, 1]"] ;
304 -> 310 ;
311 [label="X[0] <= 188.5\ngini = 0.1588\nsamples = 23\nvalue = [0, 0, 21, 2]"] ;
303 -> 311 ;
312 [label="gini = 0.0\nsamples = 7\nvalue = [0, 0, 7, 0]"] ;
311 -> 312 ;
313 [label="X[0] <= 189.5\ngini = 0.2188\nsamples = 16\nvalue = [0, 0, 14, 2]"] ;
311 -> 313 ;
314 [label="gini = 0.2449\nsamples = 7\nvalue = [0, 0, 6, 1]"] ;
313 -> 314 ;
315 [label="gini = 0.1975\nsamples = 9\nvalue = [0, 0, 8, 1]"] ;
313 -> 315 ;
316 [label="X[0] <= 218.5\ngini = 0.0169\nsamples = 10007\nvalue = [31, 49, 9922, 5]"] ;
270 -> 316 ;
317 [label="X[0] <= 197.5\ngini = 0.003\nsamples = 3985\nvalue = [0, 5, 3979, 1]"] ;
316 -> 317 ;
318 [label="X[0] <= 196.5\ngini = 0.0123\nsamples = 324\nvalue = [0, 1, 322, 1]"] ;
317 -> 318 ;
319 [label="gini = 0.0\nsamples = 231\nvalue = [0, 0, 231, 0]"] ;
318 -> 319 ;
320 [label="gini = 0.0423\nsamples = 93\nvalue = [0, 1, 91, 1]"] ;
318 -> 320 ;
321 [label="X[0] <= 217.5\ngini = 0.0022\nsamples = 3661\nvalue = [0, 4, 3657, 0]"] ;
317 -> 321 ;
322 [label="X[0] <= 200.5\ngini = 0.0017\nsamples = 3482\nvalue = [0, 3, 3479, 0]"] ;
321 -> 322 ;
323 [label="X[0] <= 199.5\ngini = 0.0059\nsamples = 337\nvalue = [0, 1, 336, 0]"] ;
322 -> 323 ;
324 [label="gini = 0.0\nsamples = 209\nvalue = [0, 0, 209, 0]"] ;
323 -> 324 ;
325 [label="gini = 0.0155\nsamples = 128\nvalue = [0, 1, 127, 0]"] ;
323 -> 325 ;
326 [label="X[0] <= 211.5\ngini = 0.0013\nsamples = 3145\nvalue = [0, 2, 3143, 0]"] ;
322 -> 326 ;
327 [label="gini = 0.0\nsamples = 1974\nvalue = [0, 0, 1974, 0]"] ;
326 -> 327 ;
328 [label="X[0] <= 212.5\ngini = 0.0034\nsamples = 1171\nvalue = [0, 2, 1169, 0]"] ;
326 -> 328 ;
329 [label="gini = 0.0105\nsamples = 190\nvalue = [0, 1, 189, 0]"] ;
328 -> 329 ;
330 [label="X[0] <= 214.5\ngini = 0.002\nsamples = 981\nvalue = [0, 1, 980, 0]"] ;
328 -> 330 ;
331 [label="gini = 0.0\nsamples = 412\nvalue = [0, 0, 412, 0]"] ;
330 -> 331 ;
332 [label="X[0] <= 215.5\ngini = 0.0035\nsamples = 569\nvalue = [0, 1, 568, 0]"] ;
330 -> 332 ;
333 [label="gini = 0.0116\nsamples = 172\nvalue = [0, 1, 171, 0]"] ;
332 -> 333 ;
334 [label="gini = 0.0\nsamples = 397\nvalue = [0, 0, 397, 0]"] ;
332 -> 334 ;
335 [label="gini = 0.0111\nsamples = 179\nvalue = [0, 1, 178, 0]"] ;
321 -> 335 ;
336 [label="X[0] <= 230.5\ngini = 0.026\nsamples = 6022\nvalue = [31, 44, 5943, 4]"] ;
316 -> 336 ;
337 [label="X[0] <= 222.5\ngini = 0.0239\nsamples = 2151\nvalue = [3, 19, 2125, 4]"] ;
336 -> 337 ;
338 [label="X[0] <= 221.5\ngini = 0.0165\nsamples = 724\nvalue = [1, 4, 718, 1]"] ;
337 -> 338 ;
339 [label="X[0] <= 219.5\ngini = 0.0184\nsamples = 539\nvalue = [0, 4, 534, 1]"] ;
338 -> 339 ;
340 [label="gini = 0.0229\nsamples = 173\nvalue = [0, 2, 171, 0]"] ;
339 -> 340 ;
341 [label="X[0] <= 220.5\ngini = 0.0163\nsamples = 366\nvalue = [0, 2, 363, 1]"] ;
339 -> 341 ;
342 [label="gini = 0.0112\nsamples = 177\nvalue = [0, 0, 176, 1]"] ;
341 -> 342 ;
343 [label="gini = 0.0209\nsamples = 189\nvalue = [0, 2, 187, 0]"] ;
341 -> 343 ;
344 [label="gini = 0.0108\nsamples = 185\nvalue = [1, 0, 184, 0]"] ;
338 -> 344 ;
345 [label="X[0] <= 223.5\ngini = 0.0277\nsamples = 1427\nvalue = [2, 15, 1407, 3]"] ;
337 -> 345 ;
346 [label="gini = 0.0469\nsamples = 209\nvalue = [1, 4, 204, 0]"] ;
345 -> 346 ;
347 [label="X[0] <= 224.5\ngini = 0.0244\nsamples = 1218\nvalue = [1, 11, 1203, 3]"] ;
345 -> 347 ;
348 [label="gini = 0.0096\nsamples = 208\nvalue = [0, 0, 207, 1]"] ;
347 -> 348 ;
349 [label="X[0] <= 228.5\ngini = 0.0274\nsamples = 1010\nvalue = [1, 11, 996, 2]"] ;
347 -> 349 ;
350 [label="X[0] <= 227.5\ngini = 0.0324\nsamples = 791\nvalue = [1, 10, 778, 2]"] ;
349 -> 350 ;
351 [label="X[0] <= 226.5\ngini = 0.0293\nsamples = 607\nvalue = [0, 8, 598, 1]"] ;
350 -> 351 ;
352 [label="X[0] <= 225.5\ngini = 0.0336\nsamples = 411\nvalue = [0, 6, 404, 1]"] ;
351 -> 352 ;
353 [label="gini = 0.0301\nsamples = 197\nvalue = [0, 2, 194, 1]"] ;
352 -> 353 ;
354 [label="gini = 0.0367\nsamples = 214\nvalue = [0, 4, 210, 0]"] ;
352 -> 354 ;
355 [label="gini = 0.0202\nsamples = 196\nvalue = [0, 2, 194, 0]"] ;
351 -> 355 ;
356 [label="gini = 0.0428\nsamples = 184\nvalue = [1, 2, 180, 1]"] ;
350 -> 356 ;
357 [label="X[0] <= 229.5\ngini = 0.0091\nsamples = 219\nvalue = [0, 1, 218, 0]"] ;
349 -> 357 ;
358 [label="gini = 0.0157\nsamples = 126\nvalue = [0, 1, 125, 0]"] ;
357 -> 358 ;
359 [label="gini = 0.0\nsamples = 93\nvalue = [0, 0, 93, 0]"] ;
357 -> 359 ;
360 [label="X[0] <= 245.5\ngini = 0.0271\nsamples = 3871\nvalue = [28, 25, 3818, 0]"] ;
336 -> 360 ;
361 [label="X[0] <= 243.5\ngini = 0.0272\nsamples = 2182\nvalue = [21, 9, 2152, 0]"] ;
360 -> 361 ;
362 [label="X[0] <= 240.5\ngini = 0.0236\nsamples = 1594\nvalue = [13, 6, 1575, 0]"] ;
361 -> 362 ;
363 [label="X[0] <= 239.5\ngini = 0.0234\nsamples = 1101\nvalue = [11, 2, 1088, 0]"] ;
362 -> 363 ;
364 [label="X[0] <= 233.5\ngini = 0.0206\nsamples = 962\nvalue = [8, 2, 952, 0]"] ;
363 -> 364 ;
365 [label="X[0] <= 232.5\ngini = 0.0346\nsamples = 285\nvalue = [4, 1, 280, 0]"] ;
364 -> 365 ;
366 [label="X[0] <= 231.5\ngini = 0.0292\nsamples = 203\nvalue = [2, 1, 200, 0]"] ;
365 -> 366 ;
367 [label="gini = 0.0339\nsamples = 116\nvalue = [2, 0, 114, 0]"] ;
366 -> 367 ;
368 [label="gini = 0.0227\nsamples = 87\nvalue = [0, 1, 86, 0]"] ;
366 -> 368 ;
369 [label="gini = 0.0476\nsamples = 82\nvalue = [2, 0, 80, 0]"] ;
365 -> 369 ;
370 [label="X[0] <= 235.5\ngini = 0.0147\nsamples = 677\nvalue = [4, 1, 672, 0]"] ;
364 -> 370 ;
371 [label="gini = 0.0\nsamples = 218\nvalue = [0, 0, 218, 0]"] ;
370 -> 371 ;
372 [label="X[0] <= 237.5\ngini = 0.0216\nsamples = 459\nvalue = [4, 1, 454, 0]"] ;
370 -> 372 ;
373 [label="X[0] <= 236.5\ngini = 0.0366\nsamples = 215\nvalue = [3, 1, 211, 0]"] ;
372 -> 373 ;
374 [label="gini = 0.0374\nsamples = 105\nvalue = [2, 0, 103, 0]"] ;
373 -> 374 ;
375 [label="gini = 0.0359\nsamples = 110\nvalue = [1, 1, 108, 0]"] ;
373 -> 375 ;
376 [label="X[0] <= 238.5\ngini = 0.0082\nsamples = 244\nvalue = [1, 0, 243, 0]"] ;
372 -> 376 ;
377 [label="gini = 0.0\nsamples = 126\nvalue = [0, 0, 126, 0]"] ;
376 -> 377 ;
378 [label="gini = 0.0168\nsamples = 118\nvalue = [1, 0, 117, 0]"] ;
376 -> 378 ;
379 [label="gini = 0.0422\nsamples = 139\nvalue = [3, 0, 136, 0]"] ;
363 -> 379 ;
380 [label="X[0] <= 241.5\ngini = 0.0241\nsamples = 493\nvalue = [2, 4, 487, 0]"] ;
362 -> 380 ;
381 [label="gini = 0.0286\nsamples = 138\nvalue = [0, 2, 136, 0]"] ;
380 -> 381 ;
382 [label="X[0] <= 242.5\ngini = 0.0223\nsamples = 355\nvalue = [2, 2, 351, 0]"] ;
380 -> 382 ;
383 [label="gini = 0.0266\nsamples = 149\nvalue = [1, 1, 147, 0]"] ;
382 -> 383 ;
384 [label="gini = 0.0193\nsamples = 206\nvalue = [1, 1, 204, 0]"] ;
382 -> 384 ;
385 [label="X[0] <= 244.5\ngini = 0.0369\nsamples = 588\nvalue = [8, 3, 577, 0]"] ;
361 -> 385 ;
386 [label="gini = 0.0394\nsamples = 300\nvalue = [4, 2, 294, 0]"] ;
385 -> 386 ;
387 [label="gini = 0.0342\nsamples = 288\nvalue = [4, 1, 283, 0]"] ;
385 -> 387 ;
388 [label="X[0] <= 250.5\ngini = 0.0269\nsamples = 1689\nvalue = [7, 16, 1666, 0]"] ;
360 -> 388 ;
389 [label="X[0] <= 248.5\ngini = 0.0303\nsamples = 1435\nvalue = [7, 15, 1413, 0]"] ;
388 -> 389 ;
390 [label="X[0] <= 246.5\ngini = 0.0266\nsamples = 893\nvalue = [5, 7, 881, 0]"] ;
389 -> 390 ;
391 [label="gini = 0.0203\nsamples = 293\nvalue = [0, 3, 290, 0]"] ;
390 -> 391 ;
392 [label="X[0] <= 247.5\ngini = 0.0297\nsamples = 600\nvalue = [5, 4, 591, 0]"] ;
390 -> 392 ;
393 [label="gini = 0.0337\nsamples = 293\nvalue = [2, 3, 288, 0]"] ;
392 -> 393 ;
394 [label="gini = 0.0258\nsamples = 307\nvalue = [3, 1, 303, 0]"] ;
392 -> 394 ;
395 [label="X[0] <= 249.5\ngini = 0.0363\nsamples = 542\nvalue = [2, 8, 532, 0]"] ;
389 -> 395 ;
396 [label="gini = 0.0436\nsamples = 269\nvalue = [0, 6, 263, 0]"] ;
395 -> 396 ;
397 [label="gini = 0.029\nsamples = 273\nvalue = [2, 2, 269, 0]"] ;
395 -> 397 ;
398 [label="gini = 0.0078\nsamples = 254\nvalue = [0, 1, 253, 0]"] ;
388 -> 398 ;
399 [label="X[0] <= 259.5\ngini = 0.1098\nsamples = 1455\nvalue = [16, 68, 1371, 0]"] ;
269 -> 399 ;
400 [label="X[0] <= 254.5\ngini = 0.0976\nsamples = 1355\nvalue = [16, 53, 1286, 0]"] ;
399 -> 400 ;
401 [label="X[0] <= 252.5\ngini = 0.0766\nsamples = 658\nvalue = [8, 18, 632, 0]"] ;
400 -> 401 ;
402 [label="gini = 0.1058\nsamples = 235\nvalue = [4, 9, 222, 0]"] ;
401 -> 402 ;
403 [label="X[0] <= 253.5\ngini = 0.06\nsamples = 423\nvalue = [4, 9, 410, 0]"] ;
401 -> 403 ;
404 [label="gini = 0.071\nsamples = 219\nvalue = [3, 5, 211, 0]"] ;
403 -> 404 ;
405 [label="gini = 0.048\nsamples = 204\nvalue = [1, 4, 199, 0]"] ;
403 -> 405 ;
406 [label="X[0] <= 255.5\ngini = 0.1169\nsamples = 697\nvalue = [8, 35, 654, 0]"] ;
400 -> 406 ;
407 [label="gini = 0.1683\nsamples = 166\nvalue = [6, 9, 151, 0]"] ;
406 -> 407 ;
408 [label="X[0] <= 256.5\ngini = 0.1003\nsamples = 531\nvalue = [2, 26, 503, 0]"] ;
406 -> 408 ;
409 [label="gini = 0.0605\nsamples = 160\nvalue = [0, 5, 155, 0]"] ;
408 -> 409 ;
410 [label="X[0] <= 258.5\ngini = 0.1169\nsamples = 371\nvalue = [2, 21, 348, 0]"] ;
408 -> 410 ;
411 [label="X[0] <= 257.5\ngini = 0.1194\nsamples = 252\nvalue = [1, 15, 236, 0]"] ;
410 -> 411 ;
412 [label="gini = 0.1264\nsamples = 119\nvalue = [1, 7, 111, 0]"] ;
411 -> 412 ;
413 [label="gini = 0.1131\nsamples = 133\nvalue = [0, 8, 125, 0]"] ;
411 -> 413 ;
414 [label="gini = 0.1116\nsamples = 119\nvalue = [1, 6, 112, 0]"] ;
410 -> 414 ;
415 [label="gini = 0.255\nsamples = 100\nvalue = [0, 15, 85, 0]"] ;
399 -> 415 ;
416 [label="X[0] <= 287.5\ngini = 0.4847\nsamples = 1577\nvalue = [1060, 370, 145, 2]"] ;
174 -> 416 ;
417 [label="X[0] <= 268.5\ngini = 0.6068\nsamples = 796\nvalue = [414, 240, 142, 0]"] ;
416 -> 417 ;
418 [label="X[0] <= 261.5\ngini = 0.5945\nsamples = 427\nvalue = [232, 74, 121, 0]"] ;
417 -> 418 ;
419 [label="gini = 0.5522\nsamples = 79\nvalue = [33, 5, 41, 0]"] ;
418 -> 419 ;
420 [label="X[0] <= 264.5\ngini = 0.5808\nsamples = 348\nvalue = [199, 69, 80, 0]"] ;
418 -> 420 ;
421 [label="X[0] <= 263.5\ngini = 0.5795\nsamples = 164\nvalue = [91, 23, 50, 0]"] ;
420 -> 421 ;
422 [label="X[0] <= 262.5\ngini = 0.5805\nsamples = 123\nvalue = [69, 19, 35, 0]"] ;
421 -> 422 ;
423 [label="gini = 0.567\nsamples = 68\nvalue = [39, 9, 20, 0]"] ;
422 -> 423 ;
424 [label="gini = 0.595\nsamples = 55\nvalue = [30, 10, 15, 0]"] ;
422 -> 424 ;
425 [label="gini = 0.5687\nsamples = 41\nvalue = [22, 4, 15, 0]"] ;
421 -> 425 ;
426 [label="X[0] <= 266.5\ngini = 0.5664\nsamples = 184\nvalue = [108, 46, 30, 0]"] ;
420 -> 426 ;
427 [label="X[0] <= 265.5\ngini = 0.5865\nsamples = 102\nvalue = [57, 27, 18, 0]"] ;
426 -> 427 ;
428 [label="gini = 0.5811\nsamples = 57\nvalue = [32, 16, 9, 0]"] ;
427 -> 428 ;
429 [label="gini = 0.5916\nsamples = 45\nvalue = [25, 11, 9, 0]"] ;
427 -> 429 ;
430 [label="X[0] <= 267.5\ngini = 0.5381\nsamples = 82\nvalue = [51, 19, 12, 0]"] ;
426 -> 430 ;
431 [label="gini = 0.5306\nsamples = 41\nvalue = [26, 8, 7, 0]"] ;
430 -> 431 ;
432 [label="gini = 0.5413\nsamples = 41\nvalue = [25, 11, 5, 0]"] ;
430 -> 432 ;
433 [label="X[0] <= 278.5\ngini = 0.5511\nsamples = 369\nvalue = [182, 166, 21, 0]"] ;
417 -> 433 ;
434 [label="X[0] <= 269.5\ngini = 0.5696\nsamples = 229\nvalue = [96, 114, 19, 0]"] ;
433 -> 434 ;
435 [label="gini = 0.5078\nsamples = 32\nvalue = [10, 20, 2, 0]"] ;
434 -> 435 ;
436 [label="X[0] <= 273.5\ngini = 0.5743\nsamples = 197\nvalue = [86, 94, 17, 0]"] ;
434 -> 436 ;
437 [label="X[0] <= 270.5\ngini = 0.5772\nsamples = 89\nvalue = [42, 39, 8, 0]"] ;
436 -> 437 ;
438 [label="gini = 0.5\nsamples = 22\nvalue = [11, 11, 0, 0]"] ;
437 -> 438 ;
439 [label="X[0] <= 271.5\ngini = 0.597\nsamples = 67\nvalue = [31, 28, 8, 0]"] ;
437 -> 439 ;
440 [label="gini = 0.6011\nsamples = 23\nvalue = [9, 11, 3, 0]"] ;
439 -> 440 ;
441 [label="X[0] <= 272.5\ngini = 0.5878\nsamples = 44\nvalue = [22, 17, 5, 0]"] ;
439 -> 441 ;
442 [label="gini = 0.5978\nsamples = 30\nvalue = [15, 11, 4, 0]"] ;
441 -> 442 ;
443 [label="gini = 0.5612\nsamples = 14\nvalue = [7, 6, 1, 0]"] ;
441 -> 443 ;
444 [label="X[0] <= 274.5\ngini = 0.5677\nsamples = 108\nvalue = [44, 55, 9, 0]"] ;
436 -> 444 ;
445 [label="gini = 0.595\nsamples = 20\nvalue = [5, 11, 4, 0]"] ;
444 -> 445 ;
446 [label="X[0] <= 276.5\ngini = 0.5504\nsamples = 88\nvalue = [39, 44, 5, 0]"] ;
444 -> 446 ;
447 [label="X[0] <= 275.5\ngini = 0.4913\nsamples = 53\nvalue = [23, 30, 0, 0]"] ;
446 -> 447 ;
448 [label="gini = 0.4985\nsamples = 36\nvalue = [17, 19, 0, 0]"] ;
447 -> 448 ;
449 [label="gini = 0.4567\nsamples = 17\nvalue = [6, 11, 0, 0]"] ;
447 -> 449 ;
450 [label="X[0] <= 277.5\ngini = 0.6106\nsamples = 35\nvalue = [16, 14, 5, 0]"] ;
446 -> 450 ;
451 [label="gini = 0.6505\nsamples = 17\nvalue = [7, 6, 4, 0]"] ;
450 -> 451 ;
452 [label="gini = 0.5494\nsamples = 18\nvalue = [9, 8, 1, 0]"] ;
450 -> 452 ;
453 [label="X[0] <= 281.5\ngini = 0.4845\nsamples = 140\nvalue = [86, 52, 2, 0]"] ;
433 -> 453 ;
454 [label="X[0] <= 279.5\ngini = 0.4981\nsamples = 56\nvalue = [33, 22, 1, 0]"] ;
453 -> 454 ;
455 [label="gini = 0.515\nsamples = 20\nvalue = [12, 7, 1, 0]"] ;
454 -> 455 ;
456 [label="X[0] <= 280.5\ngini = 0.4861\nsamples = 36\nvalue = [21, 15, 0, 0]"] ;
454 -> 456 ;
457 [label="gini = 0.4875\nsamples = 19\nvalue = [11, 8, 0, 0]"] ;
456 -> 457 ;
458 [label="gini = 0.4844\nsamples = 17\nvalue = [10, 7, 0, 0]"] ;
456 -> 458 ;
459 [label="X[0] <= 282.5\ngini = 0.4742\nsamples = 84\nvalue = [53, 30, 1, 0]"] ;
453 -> 459 ;
460 [label="gini = 0.375\nsamples = 12\nvalue = [9, 3, 0, 0]"] ;
459 -> 460 ;
461 [label="X[0] <= 283.5\ngini = 0.4857\nsamples = 72\nvalue = [44, 27, 1, 0]"] ;
459 -> 461 ;
462 [label="gini = 0.4978\nsamples = 15\nvalue = [8, 7, 0, 0]"] ;
461 -> 462 ;
463 [label="X[0] <= 284.5\ngini = 0.4777\nsamples = 57\nvalue = [36, 20, 1, 0]"] ;
461 -> 463 ;
464 [label="gini = 0.4152\nsamples = 17\nvalue = [12, 5, 0, 0]"] ;
463 -> 464 ;
465 [label="X[0] <= 285.5\ngini = 0.4988\nsamples = 40\nvalue = [24, 15, 1, 0]"] ;
463 -> 465 ;
466 [label="gini = 0.5244\nsamples = 15\nvalue = [9, 5, 1, 0]"] ;
465 -> 466 ;
467 [label="X[0] <= 286.5\ngini = 0.48\nsamples = 25\nvalue = [15, 10, 0, 0]"] ;
465 -> 467 ;
468 [label="gini = 0.48\nsamples = 20\nvalue = [12, 8, 0, 0]"] ;
467 -> 468 ;
469 [label="gini = 0.48\nsamples = 5\nvalue = [3, 2, 0, 0]"] ;
467 -> 469 ;
470 [label="X[0] <= 328.5\ngini = 0.2881\nsamples = 781\nvalue = [646, 130, 3, 2]"] ;
416 -> 470 ;
471 [label="X[0] <= 311.5\ngini = 0.3595\nsamples = 541\nvalue = [416, 120, 3, 2]"] ;
470 -> 471 ;
472 [label="X[0] <= 306.5\ngini = 0.3266\nsamples = 321\nvalue = [256, 62, 3, 0]"] ;
471 -> 472 ;
473 [label="X[0] <= 295.5\ngini = 0.3661\nsamples = 254\nvalue = [194, 57, 3, 0]"] ;
472 -> 473 ;
474 [label="X[0] <= 293.5\ngini = 0.411\nsamples = 141\nvalue = [102, 36, 3, 0]"] ;
473 -> 474 ;
475 [label="X[0] <= 291.5\ngini = 0.3488\nsamples = 95\nvalue = [74, 20, 1, 0]"] ;
474 -> 475 ;
476 [label="X[0] <= 288.5\ngini = 0.375\nsamples = 60\nvalue = [45, 15, 0, 0]"] ;
475 -> 476 ;
477 [label="gini = 0.2975\nsamples = 22\nvalue = [18, 4, 0, 0]"] ;
476 -> 477 ;
478 [label="X[0] <= 290.5\ngini = 0.4114\nsamples = 38\nvalue = [27, 11, 0, 0]"] ;
476 -> 478 ;
479 [label="X[0] <= 289.5\ngini = 0.4352\nsamples = 25\nvalue = [17, 8, 0, 0]"] ;
478 -> 479 ;
480 [label="gini = 0.4082\nsamples = 7\nvalue = [5, 2, 0, 0]"] ;
479 -> 480 ;
481 [label="gini = 0.4444\nsamples = 18\nvalue = [12, 6, 0, 0]"] ;
479 -> 481 ;
482 [label="gini = 0.355\nsamples = 13\nvalue = [10, 3, 0, 0]"] ;
478 -> 482 ;
483 [label="X[0] <= 292.5\ngini = 0.2922\nsamples = 35\nvalue = [29, 5, 1, 0]"] ;
475 -> 483 ;
484 [label="gini = 0.2659\nsamples = 19\nvalue = [16, 3, 0, 0]"] ;
483 -> 484 ;
485 [label="gini = 0.3203\nsamples = 16\nvalue = [13, 2, 1, 0]"] ;
483 -> 485 ;
486 [label="X[0] <= 294.5\ngini = 0.5066\nsamples = 46\nvalue = [28, 16, 2, 0]"] ;
474 -> 486 ;
487 [label="gini = 0.5078\nsamples = 16\nvalue = [10, 5, 1, 0]"] ;
486 -> 487 ;
488 [label="gini = 0.5044\nsamples = 30\nvalue = [18, 11, 1, 0]"] ;
486 -> 488 ;
489 [label="X[0] <= 300.5\ngini = 0.3026\nsamples = 113\nvalue = [92, 21, 0, 0]"] ;
473 -> 489 ;
490 [label="X[0] <= 297.5\ngini = 0.2268\nsamples = 46\nvalue = [40, 6, 0, 0]"] ;
489 -> 490 ;
491 [label="X[0] <= 296.5\ngini = 0.32\nsamples = 15\nvalue = [12, 3, 0, 0]"] ;
490 -> 491 ;
492 [label="gini = 0.32\nsamples = 5\nvalue = [4, 1, 0, 0]"] ;
491 -> 492 ;
493 [label="gini = 0.32\nsamples = 10\nvalue = [8, 2, 0, 0]"] ;
491 -> 493 ;
494 [label="X[0] <= 299.5\ngini = 0.1748\nsamples = 31\nvalue = [28, 3, 0, 0]"] ;
490 -> 494 ;
495 [label="X[0] <= 298.5\ngini = 0.0997\nsamples = 19\nvalue = [18, 1, 0, 0]"] ;
494 -> 495 ;
496 [label="gini = 0.1653\nsamples = 11\nvalue = [10, 1, 0, 0]"] ;
495 -> 496 ;
497 [label="gini = 0.0\nsamples = 8\nvalue = [8, 0, 0, 0]"] ;
495 -> 497 ;
498 [label="gini = 0.2778\nsamples = 12\nvalue = [10, 2, 0, 0]"] ;
494 -> 498 ;
499 [label="X[0] <= 301.5\ngini = 0.3475\nsamples = 67\nvalue = [52, 15, 0, 0]"] ;
489 -> 499 ;
500 [label="gini = 0.4444\nsamples = 6\nvalue = [2, 4, 0, 0]"] ;
499 -> 500 ;
501 [label="X[0] <= 304.5\ngini = 0.2956\nsamples = 61\nvalue = [50, 11, 0, 0]"] ;
499 -> 501 ;
502 [label="X[0] <= 302.5\ngini = 0.2235\nsamples = 39\nvalue = [34, 5, 0, 0]"] ;
501 -> 502 ;
503 [label="gini = 0.2975\nsamples = 11\nvalue = [9, 2, 0, 0]"] ;
502 -> 503 ;
504 [label="X[0] <= 303.5\ngini = 0.1913\nsamples = 28\nvalue = [25, 3, 0, 0]"] ;
502 -> 504 ;
505 [label="gini = 0.2076\nsamples = 17\nvalue = [15, 2, 0, 0]"] ;
504 -> 505 ;
506 [label="gini = 0.1653\nsamples = 11\nvalue = [10, 1, 0, 0]"] ;
504 -> 506 ;
507 [label="X[0] <= 305.5\ngini = 0.3967\nsamples = 22\nvalue = [16, 6, 0, 0]"] ;
501 -> 507 ;
508 [label="gini = 0.4444\nsamples = 12\nvalue = [8, 4, 0, 0]"] ;
507 -> 508 ;
509 [label="gini = 0.32\nsamples = 10\nvalue = [8, 2, 0, 0]"] ;
507 -> 509 ;
510 [label="X[0] <= 309.5\ngini = 0.1381\nsamples = 67\nvalue = [62, 5, 0, 0]"] ;
472 -> 510 ;
511 [label="X[0] <= 308.5\ngini = 0.054\nsamples = 36\nvalue = [35, 1, 0, 0]"] ;
510 -> 511 ;
512 [label="X[0] <= 307.5\ngini = 0.0907\nsamples = 21\nvalue = [20, 1, 0, 0]"] ;
511 -> 512 ;
513 [label="gini = 0.0\nsamples = 12\nvalue = [12, 0, 0, 0]"] ;
512 -> 513 ;
514 [label="gini = 0.1975\nsamples = 9\nvalue = [8, 1, 0, 0]"] ;
512 -> 514 ;
515 [label="gini = 0.0\nsamples = 15\nvalue = [15, 0, 0, 0]"] ;
511 -> 515 ;
516 [label="X[0] <= 310.5\ngini = 0.2248\nsamples = 31\nvalue = [27, 4, 0, 0]"] ;
510 -> 516 ;
517 [label="gini = 0.18\nsamples = 10\nvalue = [9, 1, 0, 0]"] ;
516 -> 517 ;
518 [label="gini = 0.2449\nsamples = 21\nvalue = [18, 3, 0, 0]"] ;
516 -> 518 ;
519 [label="X[0] <= 318.5\ngini = 0.4015\nsamples = 220\nvalue = [160, 58, 0, 2]"] ;
471 -> 519 ;
520 [label="X[0] <= 315.5\ngini = 0.3704\nsamples = 110\nvalue = [83, 27, 0, 0]"] ;
519 -> 520 ;
521 [label="X[0] <= 312.5\ngini = 0.3863\nsamples = 65\nvalue = [48, 17, 0, 0]"] ;
520 -> 521 ;
522 [label="gini = 0.4082\nsamples = 14\nvalue = [10, 4, 0, 0]"] ;
521 -> 522 ;
523 [label="X[0] <= 314.5\ngini = 0.3799\nsamples = 51\nvalue = [38, 13, 0, 0]"] ;
521 -> 523 ;
524 [label="X[0] <= 313.5\ngini = 0.3682\nsamples = 37\nvalue = [28, 9, 0, 0]"] ;
523 -> 524 ;
525 [label="gini = 0.3856\nsamples = 23\nvalue = [17, 6, 0, 0]"] ;
524 -> 525 ;
526 [label="gini = 0.3367\nsamples = 14\nvalue = [11, 3, 0, 0]"] ;
524 -> 526 ;
527 [label="gini = 0.4082\nsamples = 14\nvalue = [10, 4, 0, 0]"] ;
523 -> 527 ;
528 [label="X[0] <= 317.5\ngini = 0.3457\nsamples = 45\nvalue = [35, 10, 0, 0]"] ;
520 -> 528 ;
529 [label="X[0] <= 316.5\ngini = 0.3343\nsamples = 33\nvalue = [26, 7, 0, 0]"] ;
528 -> 529 ;
530 [label="gini = 0.3367\nsamples = 14\nvalue = [11, 3, 0, 0]"] ;
529 -> 530 ;
531 [label="gini = 0.3324\nsamples = 19\nvalue = [15, 4, 0, 0]"] ;
529 -> 531 ;
532 [label="gini = 0.375\nsamples = 12\nvalue = [9, 3, 0, 0]"] ;
528 -> 532 ;
533 [label="X[0] <= 321.5\ngini = 0.4302\nsamples = 110\nvalue = [77, 31, 0, 2]"] ;
519 -> 533 ;
534 [label="X[0] <= 319.5\ngini = 0.5262\nsamples = 36\nvalue = [21, 13, 0, 2]"] ;
533 -> 534 ;
535 [label="gini = 0.48\nsamples = 10\nvalue = [6, 4, 0, 0]"] ;
534 -> 535 ;
536 [label="X[0] <= 320.5\ngini = 0.5414\nsamples = 26\nvalue = [15, 9, 0, 2]"] ;
534 -> 536 ;
537 [label="gini = 0.5408\nsamples = 14\nvalue = [8, 5, 0, 1]"] ;
536 -> 537 ;
538 [label="gini = 0.5417\nsamples = 12\nvalue = [7, 4, 0, 1]"] ;
536 -> 538 ;
539 [label="X[0] <= 324.5\ngini = 0.3682\nsamples = 74\nvalue = [56, 18, 0, 0]"] ;
533 -> 539 ;
540 [label="X[0] <= 322.5\ngini = 0.3047\nsamples = 32\nvalue = [26, 6, 0, 0]"] ;
539 -> 540 ;
541 [label="gini = 0.3967\nsamples = 11\nvalue = [8, 3, 0, 0]"] ;
540 -> 541 ;
542 [label="X[0] <= 323.5\ngini = 0.2449\nsamples = 21\nvalue = [18, 3, 0, 0]"] ;
540 -> 542 ;
543 [label="gini = 0.1975\nsamples = 9\nvalue = [8, 1, 0, 0]"] ;
542 -> 543 ;
544 [label="gini = 0.2778\nsamples = 12\nvalue = [10, 2, 0, 0]"] ;
542 -> 544 ;
545 [label="X[0] <= 325.5\ngini = 0.4082\nsamples = 42\nvalue = [30, 12, 0, 0]"] ;
539 -> 545 ;
546 [label="gini = 0.48\nsamples = 10\nvalue = [6, 4, 0, 0]"] ;
545 -> 546 ;
547 [label="X[0] <= 326.5\ngini = 0.375\nsamples = 32\nvalue = [24, 8, 0, 0]"] ;
545 -> 547 ;
548 [label="gini = 0.2778\nsamples = 12\nvalue = [10, 2, 0, 0]"] ;
547 -> 548 ;
549 [label="X[0] <= 327.5\ngini = 0.42\nsamples = 20\nvalue = [14, 6, 0, 0]"] ;
547 -> 549 ;
550 [label="gini = 0.48\nsamples = 10\nvalue = [6, 4, 0, 0]"] ;
549 -> 550 ;
551 [label="gini = 0.32\nsamples = 10\nvalue = [8, 2, 0, 0]"] ;
549 -> 551 ;
552 [label="X[0] <= 339.5\ngini = 0.0799\nsamples = 240\nvalue = [230, 10, 0, 0]"] ;
470 -> 552 ;
553 [label="X[0] <= 331.5\ngini = 0.1307\nsamples = 128\nvalue = [119, 9, 0, 0]"] ;
552 -> 553 ;
554 [label="gini = 0.0\nsamples = 29\nvalue = [29, 0, 0, 0]"] ;
553 -> 554 ;
555 [label="X[0] <= 334.5\ngini = 0.1653\nsamples = 99\nvalue = [90, 9, 0, 0]"] ;
553 -> 555 ;
556 [label="X[0] <= 333.5\ngini = 0.2637\nsamples = 32\nvalue = [27, 5, 0, 0]"] ;
555 -> 556 ;
557 [label="X[0] <= 332.5\ngini = 0.18\nsamples = 20\nvalue = [18, 2, 0, 0]"] ;
556 -> 557 ;
558 [label="gini = 0.32\nsamples = 10\nvalue = [8, 2, 0, 0]"] ;
557 -> 558 ;
559 [label="gini = 0.0\nsamples = 10\nvalue = [10, 0, 0, 0]"] ;
557 -> 559 ;
560 [label="gini = 0.375\nsamples = 12\nvalue = [9, 3, 0, 0]"] ;
556 -> 560 ;
561 [label="X[0] <= 337.5\ngini = 0.1123\nsamples = 67\nvalue = [63, 4, 0, 0]"] ;
555 -> 561 ;
562 [label="X[0] <= 336.5\ngini = 0.0887\nsamples = 43\nvalue = [41, 2, 0, 0]"] ;
561 -> 562 ;
563 [label="X[0] <= 335.5\ngini = 0.142\nsamples = 26\nvalue = [24, 2, 0, 0]"] ;
562 -> 563 ;
564 [label="gini = 0.1653\nsamples = 11\nvalue = [10, 1, 0, 0]"] ;
563 -> 564 ;
565 [label="gini = 0.1244\nsamples = 15\nvalue = [14, 1, 0, 0]"] ;
563 -> 565 ;
566 [label="gini = 0.0\nsamples = 17\nvalue = [17, 0, 0, 0]"] ;
562 -> 566 ;
567 [label="X[0] <= 338.5\ngini = 0.1528\nsamples = 24\nvalue = [22, 2, 0, 0]"] ;
561 -> 567 ;
568 [label="gini = 0.1653\nsamples = 11\nvalue = [10, 1, 0, 0]"] ;
567 -> 568 ;
569 [label="gini = 0.142\nsamples = 13\nvalue = [12, 1, 0, 0]"] ;
567 -> 569 ;
570 [label="X[0] <= 345.5\ngini = 0.0177\nsamples = 112\nvalue = [111, 1, 0, 0]"] ;
552 -> 570 ;
571 [label="gini = 0.0\nsamples = 59\nvalue = [59, 0, 0, 0]"] ;
570 -> 571 ;
572 [label="X[0] <= 346.5\ngini = 0.037\nsamples = 53\nvalue = [52, 1, 0, 0]"] ;
570 -> 572 ;
573 [label="gini = 0.32\nsamples = 5\nvalue = [4, 1, 0, 0]"] ;
572 -> 573 ;
574 [label="gini = 0.0\nsamples = 48\nvalue = [48, 0, 0, 0]"] ;
572 -> 574 ;
}